// Neural Network File Format by Kyle Julian, Stanford 2016
2,2,4,20,
2,20,4,
0,
0,0,
2,2,
1,1,1,
2,2,2,
-1.28783e+00,-2.59314e-01,
-8.53553e-01,-5.88351e-01,
6.38278e-01,1.57740e-01,
2.17889e-01,-4.15211e-01,
-5.88105e-01,-3.12993e-01,
-9.30822e-01,-1.98431e-01,
-2.56264e+00,-4.53124e-01,
-1.32990e+00,7.75545e-01,
1.60001e+00,9.77806e-01,
1.55607e+00,1.63935e+00,
-1.20851e+00,1.84215e+00,
-3.15988e-01,-4.23217e-01,
8.36439e-01,-1.72308e+00,
5.54406e-01,-2.39097e+00,
4.34212e-01,-5.69380e-01,
2.20680e-01,-5.92022e-01,
-3.10767e-01,7.91273e-01,
3.58808e-01,2.70793e-01,
1.36988e-01,1.84355e-01,
-4.02259e-01,5.17817e-01,
3.29223e-01,
4.13390e-01,
-6.00264e-01,
-6.98405e-01,
-3.92295e-01,
2.23706e-01,
7.48368e-01,
5.72702e-01,
8.25276e-01,
9.22891e-01,
8.35661e-01,
-4.89199e-01,
8.04120e-01,
9.14331e-01,
-5.83475e-01,
-4.14945e-01,
3.01612e-01,
-3.41289e-01,
-2.92344e-01,
-2.64561e-01,
8.75803e-01,7.94932e-01,-1.13680e-02,9.32013e-02,-1.25377e-01,4.43666e-01,1.55625e+00,2.59529e-01,-1.33485e+00,-1.57189e+00,-3.37177e-01,2.22342e-01,3.27131e-01,8.79823e-01,-1.84460e-01,7.11043e-02,-2.56196e-01,-1.20856e-01,1.32991e-01,5.61303e-02,
-6.35360e-01,-8.05965e-02,-7.22816e-02,8.34226e-02,1.71114e-01,-4.89982e-01,-9.43487e-01,-1.09917e+00,3.43335e-01,-5.89710e-02,-1.46902e+00,1.55883e-01,1.23218e+00,1.66416e+00,-2.99433e-02,-8.88553e-02,-5.54993e-01,8.90027e-02,-2.07677e-01,-1.31993e-01,
3.78006e-01,8.13144e-02,-7.21612e-02,4.99334e-02,-4.46731e-02,1.45913e-01,1.08420e+00,1.03020e+00,-3.88365e-01,-3.84400e-02,1.64641e+00,-4.08795e-02,-1.47744e+00,-1.50190e+00,-1.85306e-01,-1.20650e-01,5.08746e-01,7.27918e-02,-7.97429e-02,1.16828e-01,
-5.98831e-01,-6.98704e-01,-2.11835e-01,-2.05853e-01,-8.23534e-02,-4.42344e-01,-1.54247e+00,-3.12826e-01,1.28362e+00,1.65799e+00,3.55900e-01,5.02104e-02,-5.60240e-01,-8.59371e-01,9.39008e-02,-1.37156e-02,2.82110e-01,-2.48357e-02,-5.79189e-02,8.50306e-02,
-2.59211e-01,
1.85101e-01,
-2.25923e-01,
1.54564e-01,
