// Neural Network File Format by Kyle Julian, Stanford 2016
2,2,4,10,
2,10,4,
0,
0,0,
2,2,
1,1,1,
2,2,2,
9.74932e-01,-9.87215e-01,
4.35737e-01,-2.33981e-02,
-1.16384e+00,-9.38917e-01,
7.08946e-01,3.48383e+00,
-4.49529e-01,8.48666e-02,
3.08943e+00,-1.41759e+00,
-2.55228e-01,-9.65892e-02,
-5.34863e-01,6.31253e-01,
-2.09091e+00,-1.31064e+00,
-3.79802e-01,1.20091e-01,
5.33474e-01,
-2.11043e-01,
7.52377e-01,
1.13018e+00,
-6.04103e-01,
1.19351e+00,
-4.45666e-01,
8.87646e-01,
1.08724e+00,
-2.29255e-01,
2.69599e-01,5.35640e-02,1.27822e+00,-1.95217e+00,1.24669e-01,-7.58337e-01,-1.29621e-01,2.27746e-02,1.78588e+00,-9.16486e-02,
1.18041e+00,-9.87795e-02,-4.77850e-01,-1.62591e+00,1.59740e-01,2.31538e+00,-1.54696e-01,-3.51486e-01,-5.69988e-01,-3.11961e-01,
-8.05365e-01,2.78060e-01,-2.13474e-02,1.48784e+00,7.99978e-02,-2.41286e+00,-1.74107e-02,1.01000e+00,4.60333e-01,-1.85946e-01,
1.91276e-01,-2.26976e-01,-9.71505e-01,2.14599e+00,-1.40284e-01,8.18880e-01,-1.66118e-01,-5.55594e-02,-1.72073e+00,-2.87496e-01,
1.38725e-01,
-6.32169e-02,
4.67985e-01,
-6.19492e-01,
