// Neural Network File Format by Kyle Julian, Stanford 2016
3,2,4,10,
2,10,10,4,
0,
0,0,
2,2,
1,1,1,
2,2,2,
4.13032e-01,1.26731e+00,
-1.46020e+00,5.02773e-01,
-8.08493e-01,9.76983e-01,
1.49189e+00,-1.13308e+00,
1.65574e-01,1.37641e+00,
3.42131e-01,9.86659e-02,
1.04509e-01,-6.41474e-01,
8.14558e-01,2.00254e+00,
2.15876e+00,4.07893e-02,
8.58470e-01,8.64338e-01,
3.11002e-01,
9.31512e-01,
8.24571e-01,
1.34282e+00,
1.92757e-01,
-4.00729e-01,
-3.70532e-01,
5.91243e-01,
3.30043e-01,
4.43467e-01,
1.57228e-01,-1.75724e-01,2.51605e-01,-1.55411e-01,2.08731e-01,2.01794e-01,2.51085e-01,-2.48673e-01,1.55250e-01,1.89525e-02,
-1.83586e-01,-1.70716e-01,-2.06738e-01,-2.70582e-02,-3.11999e-01,-1.10495e-02,2.57236e-01,-2.80688e-01,9.18469e-02,1.96479e-01,
8.36888e-01,-1.05675e-01,5.61159e-01,1.61799e-02,7.66452e-01,-1.65410e-01,1.59555e-01,1.72843e+00,1.01160e+00,8.50722e-01,
-4.20426e-01,-1.87729e-01,-5.71187e-02,1.19119e+00,-4.22918e-01,-6.36100e-02,1.24430e-01,-5.38338e-01,5.40574e-01,-3.89158e-01,
-6.54022e-01,6.27839e-01,2.31989e-01,8.88065e-01,-7.16291e-01,-2.26229e-01,9.64554e-02,-1.06277e+00,2.25241e-02,-5.88108e-01,
1.33634e-01,-4.56186e-01,-4.35295e-01,1.14413e+00,2.52061e-02,6.76646e-02,1.25267e-01,3.06346e-02,1.21510e+00,3.30555e-01,
2.68825e-01,-6.01365e-01,-2.83513e-01,7.16736e-01,3.03039e-01,2.30830e-01,2.04198e-01,3.87080e-01,9.63345e-01,5.52959e-01,
3.12275e-01,1.36235e+00,1.20478e+00,-5.40231e-01,7.33063e-01,2.04824e-01,3.03719e-01,3.48370e-01,-9.24444e-01,-1.49267e-01,
-2.17691e-01,1.75302e-01,1.10929e-01,-2.64495e-01,-3.16370e-01,8.68851e-02,1.79903e-01,8.30996e-02,1.81211e-01,-1.83710e-02,
-2.09837e-01,-1.32728e-01,-2.66382e-01,-2.00889e-01,5.60124e-02,-6.01570e-02,-9.32164e-02,-2.83043e-01,-3.11243e-01,3.03682e-01,
-2.68419e-01,
-8.67332e-02,
-4.10910e-01,
4.75239e-01,
9.91140e-01,
1.66095e-01,
-2.24845e-01,
8.94815e-01,
1.48762e-02,
-2.19998e-01,
2.70732e-01,2.59758e-01,-1.80869e+00,6.12130e-01,1.42932e+00,-2.97146e-01,-9.34844e-01,5.50382e-01,2.39607e-01,2.69115e-01,
2.00569e-01,-3.00195e-01,-2.80725e-01,9.89351e-01,7.65266e-01,1.25230e+00,6.79719e-01,-1.63449e+00,-1.42259e-01,-1.50293e-01,
-2.31995e-01,-1.73908e-01,4.69049e-01,-1.00354e+00,-4.81402e-01,-1.10928e+00,-8.77756e-01,1.64304e+00,1.74826e-02,1.93636e-01,
-1.30971e-01,-2.34782e-01,1.65211e+00,-4.29198e-01,-1.32921e+00,6.05576e-01,6.33763e-01,-4.80408e-01,2.32839e-01,2.94249e-01,
6.27628e-01,
-3.39291e-01,
-1.38081e-01,
-3.21964e-01,
