// Neural Network File Format by Kyle Julian, Stanford 2016
2,2,4,32,
2,32,4,
0,
0,0,
2,2,
1,1,1,
2,2,2,
-9.58781e-02,1.25014e+00,
3.35466e-01,-5.54540e-01,
5.84636e-02,3.08897e-01,
-4.68140e-01,-1.77072e-01,
7.42817e-01,1.44377e+00,
9.89498e-01,4.02104e-02,
-5.75045e-01,2.49643e-01,
3.76552e-01,2.95348e-01,
-4.63116e-01,2.01106e-01,
-1.86012e-01,1.99727e+00,
-9.33248e-02,1.74724e-01,
-1.62001e+00,-1.02160e+00,
-8.83729e-01,-9.67421e-01,
6.80838e-01,-2.39715e-01,
-7.94349e-01,1.51671e+00,
8.72446e-01,-1.14978e+00,
9.90944e-01,9.31681e-01,
-2.16407e-01,4.47647e-01,
-4.22349e-01,1.49134e-01,
1.32462e+00,-9.01577e-01,
-1.53518e+00,-1.13602e+00,
1.79559e+00,-1.26476e+00,
-1.76163e-01,-8.32537e-01,
-1.70035e+00,1.77954e-02,
-9.32610e-01,-1.22159e+00,
-8.48712e-02,3.43011e-01,
-3.85038e-01,-4.20840e-01,
1.29208e+00,-9.62555e-01,
3.54104e-01,-1.33913e-01,
-1.33519e-01,-1.71719e-01,
-2.18894e-01,5.66675e-01,
-2.74856e-01,6.45779e-01,
5.06653e-01,
-4.56414e-01,
-2.11164e-01,
-6.49071e-01,
7.05524e-01,
2.94389e-01,
2.53297e-01,
-6.00325e-01,
-3.60733e-01,
7.92391e-01,
5.91816e-01,
7.39796e-01,
4.93218e-01,
-5.08521e-01,
7.23573e-01,
5.60440e-01,
2.07368e-01,
7.09338e-01,
-5.29346e-01,
6.25153e-01,
7.13953e-01,
8.95462e-01,
2.64932e-01,
4.53156e-01,
5.91887e-01,
1.47765e-01,
-2.47858e-01,
6.77149e-01,
-3.72152e-01,
-1.48675e-01,
-6.05158e-01,
-4.32691e-01,
-6.74478e-01,-1.04523e-01,4.39204e-02,-1.29550e-01,-1.11984e+00,-4.73447e-01,2.10103e-01,-9.19986e-02,-2.33902e-02,-8.88117e-01,-1.99253e-01,1.24811e+00,9.34928e-01,-1.38179e-01,-3.35533e-01,7.53715e-03,-2.31263e-01,-1.60230e-01,-4.55080e-02,-3.40189e-01,1.38959e+00,-2.83186e-01,3.86050e-01,8.86764e-01,1.02592e+00,-1.80902e-01,9.41811e-03,-1.64930e-01,-1.24073e-01,7.56028e-02,-5.06056e-02,1.68815e-01,
-6.27344e-01,-1.54469e-01,1.24619e-01,-1.04975e-01,-4.04994e-01,4.84155e-01,-5.09103e-01,1.84880e-02,1.41322e-01,-9.14644e-01,-2.45609e-01,-2.84425e-01,8.49474e-03,-1.49261e-01,-1.13621e+00,1.01823e+00,-9.81504e-02,-2.61418e-01,-7.29066e-02,1.10827e+00,-2.77177e-01,1.45943e+00,3.44461e-01,-7.78955e-01,1.41068e-01,-1.98348e-01,1.44920e-01,9.78445e-01,1.51953e-01,-7.94457e-02,1.53483e-01,1.75816e-01,
6.49960e-01,2.02414e-02,1.16374e-01,-1.61285e-01,3.65410e-01,-3.11084e-01,4.14794e-01,8.27773e-02,1.09857e-01,1.12006e+00,8.98592e-02,4.23514e-01,-1.12654e-01,1.16335e-01,1.19236e+00,-1.00523e+00,-2.63157e-01,4.73263e-01,-6.18618e-02,-9.02163e-01,1.43273e-01,-1.45958e+00,-2.58735e-01,9.13890e-01,-7.57142e-02,2.12446e-01,-1.03080e-01,-1.05199e+00,-1.34826e-01,8.04114e-02,-5.91324e-02,1.03262e-02,
5.15609e-01,-3.71296e-02,1.37905e-01,2.86165e-02,1.03739e+00,4.87776e-01,-8.15631e-02,1.21314e-01,-6.19354e-02,9.86498e-01,-3.21275e-02,-1.22618e+00,-9.38484e-01,-1.11564e-01,4.43360e-01,-1.83652e-01,8.90191e-01,1.81222e-01,5.81696e-02,1.78077e-01,-1.16683e+00,4.05335e-01,-5.98188e-01,-7.32757e-01,-9.26443e-01,1.50193e-01,-2.09241e-02,3.45440e-01,-6.75171e-02,3.69617e-02,1.19609e-01,8.06919e-02,
-1.58257e-01,
-2.42582e-02,
-3.04500e-02,
2.98643e-01,
