// Neural Network File Format by Kyle Julian, Stanford 2016
2,2,4,64,
2,64,4,
0,
0,0,
2,2,
1,1,1,
2,2,2,
-9.26342e-01,-1.34826e+00,
-1.92763e-01,-7.05190e-01,
4.24907e-01,2.31222e-01,
1.42347e+00,5.03786e-01,
6.57491e-01,8.09685e-01,
-8.73693e-02,-1.34819e+00,
-8.80661e-02,-4.59147e-01,
3.90818e-01,5.04658e-01,
2.27132e-01,3.92412e-01,
-1.62598e-01,3.16325e-01,
2.98535e-01,7.34110e-01,
-3.74584e-02,-1.18642e+00,
2.35689e-01,-3.43280e-01,
-1.13948e+00,1.18374e+00,
9.83372e-01,5.32816e-01,
5.59896e-01,-7.19513e-01,
-4.02857e-01,-3.68927e-01,
-7.07400e-01,7.02790e-01,
9.04000e-01,1.94862e-01,
-6.62299e-01,1.08078e+00,
-1.56245e-01,4.95258e-01,
-4.60291e-02,2.19595e-02,
-1.04766e+00,-2.77616e-01,
-1.13107e+00,1.41260e-01,
-1.24728e+00,1.20020e-01,
6.70201e-01,-5.38684e-01,
1.77854e-01,5.94306e-01,
-1.19972e+00,7.15399e-01,
-1.19639e+00,-3.51396e-01,
-1.75350e-01,-1.27462e-01,
-6.35632e-01,4.04105e-01,
-8.02718e-02,1.12656e+00,
-2.30793e-01,4.48900e-01,
-2.28793e-01,-1.25056e+00,
8.54391e-01,-3.47610e-01,
6.95976e-01,-5.16622e-01,
5.36844e-01,-6.97277e-01,
-4.53971e-01,5.69779e-01,
-2.39754e-01,-5.45795e-01,
5.01983e-02,-2.11080e-01,
-6.15604e-01,4.52978e-01,
-4.49107e-01,6.99546e-01,
6.66601e-02,1.18387e-01,
-5.41046e-01,1.40811e+00,
3.10799e-01,-6.92279e-01,
1.09999e-01,4.31820e-01,
4.35605e-01,1.12047e+00,
1.08631e+00,2.58551e-01,
-7.21386e-01,-5.61909e-01,
5.64699e-01,1.01717e+00,
6.62309e-01,-6.80822e-02,
8.62816e-01,-1.34217e+00,
-4.75626e-01,-1.17063e-01,
1.09861e+00,5.53938e-01,
4.26966e-02,5.31808e-02,
-1.22090e-01,-1.24487e-01,
-7.53415e-01,-2.60133e-01,
-1.88630e-01,-6.12756e-01,
1.21231e+00,-2.51951e-01,
3.88365e-01,1.05324e+00,
-8.92825e-01,-3.07973e-01,
-4.20027e-01,-9.47983e-01,
-9.54714e-01,-5.14997e-02,
-3.00252e-01,-1.30921e-01,
6.39040e-01,
2.69740e-01,
-5.55359e-01,
5.95115e-01,
4.31746e-01,
4.66966e-01,
-4.22226e-01,
-2.95715e-01,
-5.70033e-01,
-2.03397e-01,
-1.33392e-01,
5.31938e-01,
2.03201e-01,
6.27373e-01,
4.61701e-01,
4.02906e-02,
-5.08613e-01,
-4.59267e-01,
5.79713e-01,
4.64682e-01,
-3.24330e-01,
-5.88005e-01,
3.36214e-01,
3.55454e-01,
3.64317e-01,
-5.70756e-01,
-2.20268e-01,
5.71787e-01,
4.09817e-01,
-1.23296e-01,
-3.94608e-01,
3.32265e-01,
-4.74875e-01,
3.85759e-01,
2.89156e-01,
4.86625e-02,
5.51147e-01,
-3.64956e-01,
1.41954e-01,
-2.83328e-01,
-2.74617e-01,
-4.10803e-01,
-4.87579e-01,
5.34974e-01,
4.26986e-02,
4.19812e-01,
3.33772e-01,
4.22699e-01,
4.50225e-01,
4.14647e-01,
-1.97448e-01,
6.62273e-01,
-4.96901e-01,
5.03361e-01,
-8.25136e-02,
-1.56194e-01,
2.58143e-01,
2.49379e-01,
5.80751e-01,
3.83971e-01,
2.52265e-01,
4.40872e-01,
6.13002e-01,
-4.65456e-01,
1.05985e+00,3.33207e-01,-2.98552e-02,-7.94922e-01,-7.04596e-01,5.32972e-01,-1.49076e-02,-4.59309e-02,-5.63294e-04,-6.45614e-02,-2.26401e-02,4.66022e-01,1.29663e-02,-1.50000e-02,-6.91126e-01,-9.35888e-02,-4.18299e-02,-7.43470e-02,-4.96826e-01,-3.16918e-01,-1.30413e-02,-3.08864e-02,4.99360e-01,3.23916e-01,4.69688e-01,-1.01419e-01,-2.97893e-02,1.85993e-01,6.53406e-01,5.66961e-03,1.16380e-01,-3.93126e-01,-1.23242e-01,5.86677e-01,-1.65881e-01,-3.44050e-01,3.57412e-02,-3.01497e-02,3.21785e-01,2.45133e-02,-1.16210e-01,-1.26966e-01,6.08215e-02,-3.86743e-01,-7.09221e-02,-2.58105e-01,-4.86333e-01,-5.99034e-01,5.01521e-01,-5.87901e-01,3.59990e-02,2.64993e-01,-1.75877e-02,-6.52411e-01,2.70553e-02,9.05488e-02,4.41100e-01,3.18921e-01,-3.36111e-01,-6.69309e-01,5.90567e-01,5.49292e-01,3.15940e-01,5.47932e-02,
2.45075e-01,2.70679e-01,-1.16849e-01,5.11734e-01,-1.40491e-01,4.90058e-01,-5.80440e-02,2.98056e-02,6.33993e-02,-8.94080e-02,-4.39037e-02,6.22533e-01,2.65743e-01,-9.92368e-01,2.34792e-01,3.74973e-01,-7.21796e-02,-1.21459e-01,3.10402e-01,-7.19387e-01,6.38255e-02,1.17088e-02,-3.79097e-01,-6.42858e-01,-7.19680e-01,-8.88572e-03,-2.34670e-02,-8.82569e-01,-3.16598e-01,-8.30896e-02,-1.14815e-01,-4.14511e-01,-1.93308e-02,5.17765e-01,5.28111e-01,5.06263e-01,5.15117e-01,8.27893e-02,-3.46948e-02,3.61389e-02,8.99012e-02,-1.05545e-03,1.94832e-02,-7.91348e-01,3.19849e-01,-1.45525e-01,-4.70818e-01,4.24933e-01,1.82713e-02,-2.11209e-01,3.07140e-02,1.05238e+00,9.95787e-02,3.17026e-01,1.21213e-01,-9.08606e-02,-2.10947e-01,2.75087e-01,8.03229e-01,-3.81723e-01,-3.88472e-01,2.83678e-01,-4.18568e-01,5.28322e-02,
-2.74960e-01,-2.43109e-01,1.14783e-01,-4.29635e-01,3.08584e-02,-6.94443e-01,-2.72828e-02,-8.97141e-02,7.46002e-02,-8.12338e-02,-1.20617e-01,-4.30421e-01,-3.36429e-01,1.14031e+00,-2.61748e-01,-8.02725e-02,-6.88148e-03,-1.44340e-02,-3.16060e-01,8.97171e-01,1.21413e-01,2.70626e-02,3.07571e-01,5.57362e-01,5.36543e-01,1.82706e-03,-4.91767e-02,8.82498e-01,4.55770e-01,-1.08628e-01,-5.43755e-02,6.75571e-01,1.98324e-02,-4.67113e-01,-3.91944e-01,-8.53860e-02,-6.07516e-01,-4.69598e-02,-2.68061e-01,3.85967e-02,-3.71014e-02,5.28947e-02,-1.61484e-02,9.52343e-01,-1.02180e-01,1.77068e-01,1.50526e-01,-3.29254e-01,1.52639e-01,1.71462e-01,2.84547e-02,-1.11174e+00,-3.41530e-02,-2.43724e-01,-2.22583e-03,-1.12449e-01,2.55774e-01,-1.88797e-01,-5.42040e-01,2.08656e-01,1.84707e-01,-1.74801e-01,3.48292e-01,2.66018e-02,
-8.65602e-01,-2.70874e-01,4.85268e-02,8.54583e-01,6.69466e-01,-6.37935e-01,6.23653e-02,-1.95910e-02,-9.47636e-02,-1.20489e-01,1.79812e-01,-4.02086e-01,-4.54970e-02,-3.19207e-02,6.48458e-01,-2.59269e-01,-4.60089e-02,2.84920e-02,4.62282e-01,7.26085e-02,2.83420e-05,4.08099e-02,-5.00757e-01,-4.99730e-01,-4.97501e-01,-2.97335e-02,6.64952e-02,-1.82330e-01,-6.08770e-01,-1.01944e-01,-7.00148e-02,4.78439e-01,-1.07125e-01,-5.51434e-01,2.33770e-01,-1.90938e-01,-1.89582e-02,1.12422e-01,-2.48340e-01,2.14446e-02,-2.44911e-02,1.19337e-01,9.09598e-02,4.29249e-01,-1.18503e-01,2.43625e-01,6.67040e-01,5.07607e-01,-5.90547e-01,7.24683e-01,-1.14009e-01,-8.84960e-02,6.77023e-02,7.59193e-01,-6.15051e-02,1.58160e-02,-3.76904e-01,-3.67526e-01,4.31353e-01,6.57518e-01,-3.58585e-01,-4.69391e-01,-4.57519e-01,1.18421e-01,
2.36413e-02,
-2.66817e-02,
7.48945e-02,
-4.01808e-02,
